%YAML:1.0
---
opencv_ml_ann_mlp:
   format: 3
   layer_sizes: [ 16, 8, 1 ]
   activation_function: SIGMOID_SYM
   f_param1: 6.6666666666666663e-01
   f_param2: 1.7159000000000000e+00
   min_val: -9.4999999999999996e-01
   max_val: 9.4999999999999996e-01
   min_val1: -9.7999999999999998e-01
   max_val1: 9.7999999999999998e-01
   training_params:
      train_method: BACKPROP
      dw_scale: 1.0000000000000001e-01
      moment_scale: 0.
      term_criteria:
         iterations: 141000
   input_scale:
      - 1.
      - 0.
      - 2.0005762489514995e+00
      - -9.7628120948833175e-01
      - 2.0005762489514995e+00
      - -9.7628120948833175e-01
      - 2.0005762489514995e+00
      - -9.7628120948833175e-01
      - 2.0005762489514995e+00
      - -9.7628120948833175e-01
      - 2.0005762489514995e+00
      - -9.7628120948833175e-01
      - 2.0000640030721639e+00
      - -9.9203174552379325e-01
      - 2.0000640030721639e+00
      - -9.9203174552379325e-01
      - 2.
      - -1.
      - 2.
      - -1.
      - 2.
      - -1.
      - 2.
      - -1.
      - 2.
      - -1.
      - 2.
      - -1.
      - 2.
      - -1.
      - 2.
      - -1.
   output_scale:
      - 5.2631578947368418e-01
      - 4.9999999999999994e-01
   inv_output_scale:
      - 1.8999999999999999e+00
      - -9.4999999999999996e-01
   weights:
      -
         - -9.3878300653466404e-02
         - -3.1130712066219498e-03
         - 1.5981497278031803e-02
         - 6.7165560329903728e-02
         - 5.4717384591558914e-02
         - -6.4309245005214705e-02
         - 6.1112324890864420e-02
         - 1.0432000032240817e-01
         - 2.1106126751485904e-02
         - -4.1420911756972646e-03
         - -2.2227741623395962e-02
         - -1.9249731619529538e-02
         - -4.5895527984138595e-02
         - 1.1477496950653837e-01
         - 4.7092086382993670e-02
         - 3.0551984254510334e-02
         - -1.2166862682379237e-02
         - 1.0081157395164785e-04
         - 3.0894526336008045e-03
         - 9.7543968448836876e-03
         - -3.3154561503098583e-02
         - -1.3304045188408031e-02
         - -7.7619587618637950e-02
         - 3.4289923747008928e-03
         - -8.8557801211946910e-02
         - 1.8284537084867471e-02
         - 1.9948918683575793e-02
         - -4.4579066849264694e-02
         - -8.6108095725607861e-02
         - -8.4325954954862545e-02
         - -8.2041416389261948e-02
         - 5.4922992418620226e-02
         - -8.7335265956996824e-02
         - -5.1020309526090810e-02
         - 6.8080756066090202e-03
         - -2.7830427181556386e-03
         - 6.2561442025204181e-02
         - -4.3631078428506449e-02
         - -9.3781422070517480e-03
         - 1.0751443760847416e-01
         - -1.7301241859606478e-02
         - -1.4899278002281201e-02
         - 6.1553180806557424e-02
         - -3.6296904277671939e-02
         - -1.9117218821956501e-02
         - -4.8325044732231044e-02
         - -4.9240446342018393e-03
         - -7.7148089778839468e-02
         - 6.5747983468710774e-02
         - -3.2232429126484080e-02
         - -3.2426298133499461e-02
         - -5.6416516031463623e-02
         - -3.4225265127824922e-02
         - 6.0618532577884882e-02
         - 9.9060152224911806e-03
         - -4.4633817761888447e-02
         - -9.9275978093029769e-03
         - 6.8856674198848694e-02
         - -2.7028438790644340e-02
         - 1.4525283562048540e-02
         - 3.0886854302330985e-02
         - -7.0378903516956776e-02
         - 6.1764203602533450e-02
         - 3.2438214859908658e-02
         - -2.3141777775473434e-02
         - -3.8757120792486471e-02
         - 3.9954209992535128e-02
         - -1.2293841078235756e-02
         - 5.5642012636704694e-02
         - -1.0718585307134355e-02
         - 6.9173997999122772e-02
         - -1.3062854605378912e-03
         - 7.8696465017464148e-02
         - -3.9858109524925203e-02
         - 6.3843294593492181e-02
         - 4.0219110217419203e-02
         - -4.1256507197318104e-02
         - -4.2991742623974483e-02
         - 7.5019803948122216e-02
         - 8.4930797963337371e-02
         - 5.0847479946540597e-02
         - -6.2470123362791521e-02
         - -5.1322016755301486e-02
         - -4.3396596753877352e-02
         - 3.7276867588745419e-02
         - -8.3688726347704329e-02
         - -2.3416023119209258e-02
         - 3.6446798210695290e-02
         - 3.9337191525438747e-03
         - 2.1086493349644027e-02
         - 2.1602356735795462e-02
         - -1.3502690078331827e-02
         - -3.5047631781871635e-03
         - -7.2296401739208760e-02
         - 7.9776118224404863e-02
         - 2.6368088764737421e-02
         - -2.9187981737265962e-02
         - -1.6979130222110735e-02
         - 1.7165298042051857e-02
         - -2.7106035343632097e-03
         - -4.3637141652037331e-02
         - 9.2598903065492316e-02
         - 2.5979252583603115e-02
         - 6.1249715568704295e-02
         - -3.9550359644207222e-02
         - -2.2600491713411573e-02
         - -2.6495763402135025e-02
         - -2.8846399521057331e-02
         - -4.1229674672429800e-02
         - 6.1279566418633885e-02
         - -1.2346001276140262e-02
         - 9.5807433219863222e-02
         - -3.2151240119532590e-02
         - 1.5611731282540059e-02
         - 2.2398627305347443e-03
         - -3.0518751115048398e-02
         - -2.2131821440663717e-02
         - 3.8469338361539110e-02
         - 5.9574219161401695e-02
         - 2.5282550937413144e-02
         - -5.7123733882857464e-01
         - -7.2358320842609969e-01
         - -7.6542253751226219e-01
         - 8.1606322745534599e-01
         - -6.2737766401861594e-01
         - -2.1507118569105299e-01
         - 4.6837711964395773e-01
         - -4.5978774867238131e-01
         - -6.2105660443656424e-02
         - -1.1969233394156606e-01
         - -9.7663008026610862e-02
         - 1.3271163548874404e-01
         - -1.0696691777978687e-01
         - -3.1472294323534988e-02
         - 4.2328810740170128e-02
         - -2.2277428405818086e-02
      -
         - 6.0889601405587002e-01
         - 8.5471370268336611e-01
         - 9.1958167913600497e-01
         - -8.7982899763076694e-01
         - 6.9581455728716546e-01
         - 2.8865047261228072e-01
         - -4.9342920983489597e-01
         - 4.8372043261478104e-01
         - 2.4999463310705328e-01
